svm_type c_svc
kernel_type linear
nr_class 2
total_sv 3
rho -20.599703652013577
label 0 1
probA -1.49363057987661
probB 0.04843475769738453
nr_sv 2 1
SV
3.5573156828006393E-4 0:390.760009765625 1:313.1000061035156 2:301.5799865722656 
6.071379519495122E-4 0:389.4200134277344 1:318.4200134277344 2:293.9599914550781 
-9.628695202295761E-4 0:392.0400085449219 1:353.9599914550781 2:322.5799865722656 
