svm_type c_svc
kernel_type linear
nr_class 2
total_sv 25
rho -1.984255635422602
label 0 1
probA -0.259367677330194
probB -0.5801712864778231
nr_sv 16 9
SV
0.002268501679225326 0:21.0 1:12.0 2:10.0 3:4.0 4:7.0 5:5.0 6:5.0 7:4.0 8:3.0 9:3.0 10:2.0 11:5.0 12:5.0 13:2.0 14:1.0 15:3.0 16:4.0 17:4.0 18:2.0 19:1.0 20:3.0 21:3.0 22:2.0 23:2.0 24:2.0 25:2.0 26:3.0 27:1.0 28:2.0 29:2.0 30:1.0 31:1.0 32:1.0 33:3.0 34:2.0 35:2.0 36:1.0 37:1.0 38:2.0 39:1.0 40:1.0 41:1.0 42:2.0 43:2.0 44:1.0 45:1.0 46:1.0 47:2.0 48:3.0 49:2.0 50:1.0 51:1.0 52:1.0 53:1.0 54:1.0 55:2.0 56:1.0 57:1.0 58:1.0 59:1.0 60:2.0 61:2.0 62:2.0 
0.0016032792236531103 0:68.0 1:98.0 2:47.0 3:11.0 4:8.0 5:7.0 6:6.0 7:6.0 8:2.0 9:1.0 10:2.0 11:5.0 12:1.0 13:4.0 14:6.0 15:4.0 16:2.0 17:3.0 18:4.0 19:4.0 20:2.0 21:4.0 22:3.0 23:2.0 24:1.0 25:3.0 26:2.0 27:1.0 28:2.0 29:3.0 30:2.0 31:2.0 32:1.0 33:2.0 34:2.0 35:2.0 36:2.0 37:2.0 38:2.0 39:2.0 40:2.0 41:2.0 42:2.0 43:1.0 44:1.0 45:2.0 46:1.0 47:0.0 48:0.0 49:1.0 50:2.0 51:2.0 52:1.0 53:1.0 54:2.0 55:3.0 56:3.0 57:2.0 58:1.0 59:1.0 60:2.0 61:2.0 62:2.0 
0.005952709723639305 0:454.0 1:410.0 2:137.0 3:41.0 4:11.0 5:10.0 6:8.0 7:10.0 8:7.0 9:4.0 10:13.0 11:10.0 12:5.0 13:9.0 14:9.0 15:7.0 16:5.0 17:4.0 18:3.0 19:4.0 20:4.0 21:1.0 22:5.0 23:5.0 24:6.0 25:2.0 26:1.0 27:2.0 28:3.0 29:2.0 30:1.0 31:2.0 32:2.0 33:3.0 34:3.0 35:2.0 36:2.0 37:3.0 38:2.0 39:1.0 40:3.0 41:4.0 42:3.0 43:4.0 44:2.0 45:1.0 46:2.0 47:4.0 48:3.0 49:3.0 50:4.0 51:2.0 52:2.0 53:2.0 54:1.0 55:2.0 56:2.0 57:2.0 58:2.0 59:2.0 60:3.0 61:1.0 62:1.0 
0.0023329817613756813 0:437.0 1:137.0 2:70.0 3:21.0 4:18.0 5:11.0 6:4.0 7:3.0 8:6.0 9:7.0 10:7.0 11:11.0 12:4.0 13:3.0 14:5.0 15:6.0 16:3.0 17:4.0 18:5.0 19:4.0 20:2.0 21:4.0 22:3.0 23:2.0 24:7.0 25:5.0 26:4.0 27:3.0 28:6.0 29:5.0 30:7.0 31:6.0 32:3.0 33:3.0 34:3.0 35:2.0 36:3.0 37:1.0 38:3.0 39:4.0 40:7.0 41:6.0 42:3.0 43:2.0 44:2.0 45:2.0 46:3.0 47:3.0 48:1.0 49:2.0 50:3.0 51:1.0 52:1.0 53:2.0 54:3.0 55:4.0 56:1.0 57:3.0 58:2.0 59:2.0 60:2.0 61:2.0 62:4.0 
0.007279357044516819 0:380.0 1:140.0 2:73.0 3:29.0 4:7.0 5:4.0 6:4.0 7:7.0 8:8.0 9:8.0 10:4.0 11:8.0 12:6.0 13:3.0 14:5.0 15:5.0 16:3.0 17:5.0 18:7.0 19:3.0 20:5.0 21:3.0 22:3.0 23:3.0 24:5.0 25:6.0 26:7.0 27:5.0 28:5.0 29:4.0 30:4.0 31:2.0 32:2.0 33:2.0 34:2.0 35:3.0 36:2.0 37:3.0 38:2.0 39:3.0 40:1.0 41:3.0 42:2.0 43:1.0 44:1.0 45:2.0 46:2.0 47:4.0 48:1.0 49:4.0 50:5.0 51:3.0 52:1.0 53:1.0 54:1.0 55:2.0 56:2.0 57:3.0 58:2.0 59:1.0 60:2.0 61:4.0 62:3.0 
0.003918558812225178 0:263.0 1:183.0 2:166.0 3:30.0 4:13.0 5:10.0 6:9.0 7:9.0 8:8.0 9:7.0 10:9.0 11:11.0 12:8.0 13:6.0 14:3.0 15:5.0 16:6.0 17:2.0 18:3.0 19:5.0 20:3.0 21:4.0 22:2.0 23:5.0 24:3.0 25:3.0 26:2.0 27:1.0 28:3.0 29:3.0 30:4.0 31:2.0 32:2.0 33:3.0 34:4.0 35:3.0 36:3.0 37:3.0 38:3.0 39:2.0 40:2.0 41:3.0 42:3.0 43:1.0 44:3.0 45:2.0 46:2.0 47:2.0 48:0.0 49:1.0 50:1.0 51:2.0 52:2.0 53:2.0 54:2.0 55:3.0 56:2.0 57:1.0 58:3.0 59:1.0 60:1.0 61:1.0 62:1.0 
0.004184401664342525 0:459.0 1:324.0 2:30.0 3:8.0 4:28.0 5:26.0 6:21.0 7:17.0 8:14.0 9:16.0 10:11.0 11:10.0 12:8.0 13:5.0 14:8.0 15:8.0 16:11.0 17:11.0 18:13.0 19:9.0 20:6.0 21:4.0 22:6.0 23:7.0 24:5.0 25:2.0 26:3.0 27:3.0 28:3.0 29:5.0 30:6.0 31:4.0 32:3.0 33:3.0 34:4.0 35:3.0 36:3.0 37:4.0 38:4.0 39:2.0 40:3.0 41:3.0 42:2.0 43:2.0 44:2.0 45:3.0 46:2.0 47:2.0 48:3.0 49:3.0 50:3.0 51:3.0 52:4.0 53:2.0 54:1.0 55:2.0 56:4.0 57:3.0 58:3.0 59:2.0 60:2.0 61:3.0 62:3.0 
0.01449562494965283 0:216.0 1:268.0 2:38.0 3:29.0 4:7.0 5:9.0 6:7.0 7:6.0 8:8.0 9:6.0 10:4.0 11:6.0 12:3.0 13:1.0 14:1.0 15:2.0 16:3.0 17:2.0 18:4.0 19:3.0 20:1.0 21:4.0 22:4.0 23:4.0 24:2.0 25:1.0 26:4.0 27:3.0 28:3.0 29:2.0 30:1.0 31:1.0 32:3.0 33:3.0 34:2.0 35:1.0 36:2.0 37:3.0 38:3.0 39:5.0 40:5.0 41:1.0 42:1.0 43:1.0 44:2.0 45:3.0 46:2.0 47:2.0 48:2.0 49:2.0 50:3.0 51:1.0 52:2.0 53:2.0 54:1.0 55:3.0 56:3.0 57:2.0 58:1.0 59:1.0 60:1.0 61:2.0 62:2.0 
0.00287161092710345 0:304.0 1:122.0 2:41.0 3:12.0 4:13.0 5:8.0 6:4.0 7:5.0 8:8.0 9:5.0 10:10.0 11:9.0 12:8.0 13:7.0 14:5.0 15:5.0 16:8.0 17:10.0 18:8.0 19:5.0 20:4.0 21:6.0 22:3.0 23:4.0 24:3.0 25:3.0 26:4.0 27:2.0 28:3.0 29:2.0 30:2.0 31:3.0 32:2.0 33:4.0 34:2.0 35:2.0 36:2.0 37:2.0 38:2.0 39:3.0 40:3.0 41:2.0 42:2.0 43:1.0 44:1.0 45:2.0 46:3.0 47:2.0 48:4.0 49:3.0 50:2.0 51:3.0 52:3.0 53:3.0 54:2.0 55:1.0 56:1.0 57:2.0 58:3.0 59:3.0 60:2.0 61:1.0 62:3.0 
0.007317775929143566 0:212.0 1:167.0 2:101.0 3:28.0 4:12.0 5:6.0 6:6.0 7:4.0 8:6.0 9:6.0 10:5.0 11:4.0 12:6.0 13:5.0 14:5.0 15:6.0 16:6.0 17:4.0 18:4.0 19:2.0 20:3.0 21:5.0 22:6.0 23:5.0 24:4.0 25:4.0 26:4.0 27:8.0 28:5.0 29:3.0 30:2.0 31:1.0 32:3.0 33:4.0 34:2.0 35:5.0 36:4.0 37:1.0 38:2.0 39:3.0 40:4.0 41:4.0 42:2.0 43:2.0 44:2.0 45:1.0 46:1.0 47:1.0 48:3.0 49:3.0 50:2.0 51:2.0 52:2.0 53:2.0 54:4.0 55:3.0 56:2.0 57:2.0 58:3.0 59:2.0 60:2.0 61:2.0 62:3.0 
2.0030619291551194E-4 0:586.0 1:667.0 2:162.0 3:75.0 4:43.0 5:34.0 6:23.0 7:25.0 8:27.0 9:23.0 10:22.0 11:18.0 12:26.0 13:31.0 14:30.0 15:27.0 16:34.0 17:24.0 18:25.0 19:21.0 20:20.0 21:15.0 22:13.0 23:14.0 24:8.0 25:16.0 26:13.0 27:15.0 28:12.0 29:11.0 30:10.0 31:11.0 32:13.0 33:9.0 34:8.0 35:10.0 36:10.0 37:7.0 38:8.0 39:10.0 40:8.0 41:9.0 42:4.0 43:5.0 44:6.0 45:2.0 46:3.0 47:4.0 48:2.0 49:3.0 50:4.0 51:3.0 52:2.0 53:3.0 54:3.0 55:4.0 56:3.0 57:4.0 58:3.0 59:2.0 60:1.0 61:3.0 62:2.0 
0.0036341742450772025 0:643.0 1:606.0 2:109.0 3:32.0 4:14.0 5:6.0 6:4.0 7:4.0 8:4.0 9:7.0 10:5.0 11:6.0 12:7.0 13:6.0 14:3.0 15:4.0 16:8.0 17:5.0 18:2.0 19:7.0 20:7.0 21:6.0 22:3.0 23:3.0 24:7.0 25:5.0 26:4.0 27:3.0 28:4.0 29:3.0 30:3.0 31:3.0 32:6.0 33:4.0 34:2.0 35:1.0 36:2.0 37:3.0 38:1.0 39:2.0 40:2.0 41:2.0 42:3.0 43:2.0 44:3.0 45:5.0 46:4.0 47:3.0 48:3.0 49:4.0 50:2.0 51:2.0 52:3.0 53:3.0 54:2.0 55:2.0 56:2.0 57:2.0 58:1.0 59:1.0 60:3.0 61:2.0 62:2.0 
0.01666635008692267 0:183.0 1:405.0 2:249.0 3:11.0 4:11.0 5:11.0 6:9.0 7:5.0 8:6.0 9:6.0 10:6.0 11:4.0 12:3.0 13:3.0 14:4.0 15:9.0 16:10.0 17:6.0 18:5.0 19:5.0 20:4.0 21:2.0 22:2.0 23:3.0 24:4.0 25:5.0 26:6.0 27:5.0 28:4.0 29:4.0 30:5.0 31:3.0 32:4.0 33:2.0 34:1.0 35:2.0 36:3.0 37:3.0 38:3.0 39:3.0 40:3.0 41:3.0 42:2.0 43:2.0 44:3.0 45:3.0 46:3.0 47:2.0 48:2.0 49:4.0 50:3.0 51:2.0 52:2.0 53:2.0 54:3.0 55:2.0 56:1.0 57:2.0 58:2.0 59:1.0 60:3.0 61:1.0 62:2.0 
0.0022212174695598118 0:500.0 1:358.0 2:150.0 3:56.0 4:13.0 5:13.0 6:9.0 7:12.0 8:6.0 9:6.0 10:4.0 11:8.0 12:10.0 13:10.0 14:6.0 15:5.0 16:4.0 17:3.0 18:2.0 19:4.0 20:4.0 21:2.0 22:2.0 23:4.0 24:5.0 25:3.0 26:5.0 27:4.0 28:2.0 29:2.0 30:2.0 31:4.0 32:3.0 33:2.0 34:3.0 35:3.0 36:3.0 37:3.0 38:4.0 39:3.0 40:2.0 41:2.0 42:0.0 43:2.0 44:3.0 45:3.0 46:3.0 47:2.0 48:4.0 49:3.0 50:1.0 51:2.0 52:2.0 53:2.0 54:1.0 55:2.0 56:3.0 57:2.0 58:1.0 59:2.0 60:1.0 61:2.0 62:1.0 
0.009050026067078144 0:419.0 1:242.0 2:42.0 3:38.0 4:24.0 5:22.0 6:16.0 7:18.0 8:16.0 9:19.0 10:16.0 11:11.0 12:10.0 13:11.0 14:8.0 15:10.0 16:9.0 17:8.0 18:11.0 19:10.0 20:8.0 21:6.0 22:6.0 23:7.0 24:9.0 25:5.0 26:3.0 27:4.0 28:4.0 29:4.0 30:7.0 31:9.0 32:7.0 33:5.0 34:4.0 35:2.0 36:4.0 37:5.0 38:5.0 39:5.0 40:5.0 41:3.0 42:4.0 43:5.0 44:3.0 45:4.0 46:4.0 47:4.0 48:3.0 49:2.0 50:2.0 51:2.0 52:2.0 53:2.0 54:2.0 55:4.0 56:4.0 57:2.0 58:2.0 59:3.0 60:3.0 61:3.0 62:2.0 
0.0016074297105393715 0:457.0 1:246.0 2:39.0 3:35.0 4:6.0 5:7.0 6:7.0 7:8.0 8:9.0 9:7.0 10:9.0 11:6.0 12:3.0 13:1.0 14:3.0 15:3.0 16:5.0 17:4.0 18:5.0 19:5.0 20:2.0 21:6.0 22:8.0 23:5.0 24:4.0 25:3.0 26:2.0 27:3.0 28:2.0 29:2.0 30:3.0 31:4.0 32:2.0 33:1.0 34:4.0 35:4.0 36:3.0 37:2.0 38:2.0 39:1.0 40:2.0 41:2.0 42:2.0 43:2.0 44:2.0 45:1.0 46:1.0 47:2.0 48:3.0 49:3.0 50:3.0 51:2.0 52:2.0 53:2.0 54:3.0 55:3.0 56:3.0 57:4.0 58:3.0 59:3.0 60:3.0 61:3.0 62:1.0 
-0.053682230412755966 0:273.0 1:319.0 2:99.0 3:15.0 4:7.0 5:7.0 6:7.0 7:5.0 8:2.0 9:5.0 10:4.0 11:6.0 12:4.0 13:1.0 14:3.0 15:6.0 16:4.0 17:3.0 18:5.0 19:4.0 20:3.0 21:2.0 22:2.0 23:3.0 24:2.0 25:2.0 26:2.0 27:2.0 28:3.0 29:2.0 30:1.0 31:2.0 32:3.0 33:3.0 34:2.0 35:1.0 36:3.0 37:3.0 38:2.0 39:3.0 40:3.0 41:3.0 42:2.0 43:1.0 44:1.0 45:2.0 46:2.0 47:1.0 48:3.0 49:5.0 50:4.0 51:3.0 52:2.0 53:2.0 54:3.0 55:2.0 56:1.0 57:2.0 58:1.0 59:1.0 60:2.0 61:2.0 62:1.0 
-0.016720673625925463 0:181.0 1:172.0 2:116.0 3:35.0 4:11.0 5:10.0 6:4.0 7:3.0 8:4.0 9:6.0 10:4.0 11:5.0 12:6.0 13:4.0 14:3.0 15:5.0 16:4.0 17:3.0 18:4.0 19:6.0 20:2.0 21:2.0 22:2.0 23:3.0 24:3.0 25:4.0 26:3.0 27:3.0 28:2.0 29:2.0 30:3.0 31:1.0 32:1.0 33:1.0 34:2.0 35:3.0 36:4.0 37:4.0 38:3.0 39:2.0 40:3.0 41:3.0 42:3.0 43:3.0 44:2.0 45:1.0 46:3.0 47:3.0 48:3.0 49:3.0 50:3.0 51:2.0 52:3.0 53:3.0 54:3.0 55:3.0 56:3.0 57:1.0 58:0.0 59:1.0 60:2.0 61:2.0 62:2.0 
-3.1013990039604615E-4 0:205.0 1:165.0 2:81.0 3:88.0 4:76.0 5:40.0 6:75.0 7:105.0 8:123.0 9:55.0 10:33.0 11:72.0 12:56.0 13:113.0 14:101.0 15:78.0 16:90.0 17:79.0 18:57.0 19:44.0 20:33.0 21:64.0 22:47.0 23:13.0 24:42.0 25:30.0 26:29.0 27:73.0 28:74.0 29:34.0 30:31.0 31:40.0 32:17.0 33:56.0 34:77.0 35:23.0 36:47.0 37:11.0 38:53.0 39:39.0 40:30.0 41:32.0 42:8.0 43:22.0 44:28.0 45:16.0 46:55.0 47:44.0 48:51.0 49:59.0 50:21.0 51:17.0 52:29.0 53:34.0 54:16.0 55:35.0 56:55.0 57:55.0 58:65.0 59:85.0 60:55.0 61:36.0 62:11.0 
-6.778406637621464E-5 0:374.0 1:142.0 2:115.0 3:128.0 4:46.0 5:59.0 6:53.0 7:141.0 8:253.0 9:158.0 10:142.0 11:109.0 12:49.0 13:75.0 14:70.0 15:121.0 16:88.0 17:67.0 18:39.0 19:27.0 20:62.0 21:43.0 22:89.0 23:97.0 24:68.0 25:31.0 26:29.0 27:18.0 28:51.0 29:62.0 30:33.0 31:34.0 32:70.0 33:87.0 34:36.0 35:45.0 36:28.0 37:62.0 38:80.0 39:76.0 40:39.0 41:78.0 42:59.0 43:30.0 44:91.0 45:89.0 46:26.0 47:42.0 48:56.0 49:41.0 50:24.0 51:38.0 52:59.0 53:36.0 54:22.0 55:16.0 56:29.0 57:25.0 58:31.0 59:26.0 60:17.0 61:34.0 62:11.0 
-3.624318826544412E-4 0:849.0 1:714.0 2:295.0 3:132.0 4:205.0 5:221.0 6:178.0 7:121.0 8:133.0 9:109.0 10:20.0 11:51.0 12:47.0 13:34.0 14:38.0 15:41.0 16:32.0 17:38.0 18:42.0 19:30.0 20:35.0 21:33.0 22:67.0 23:51.0 24:47.0 25:56.0 26:37.0 27:26.0 28:22.0 29:16.0 30:21.0 31:30.0 32:44.0 33:15.0 34:30.0 35:34.0 36:11.0 37:17.0 38:30.0 39:42.0 40:46.0 41:21.0 42:35.0 43:38.0 44:17.0 45:27.0 46:10.0 47:21.0 48:12.0 49:3.0 50:10.0 51:11.0 52:10.0 53:18.0 54:10.0 55:20.0 56:29.0 57:6.0 58:11.0 59:18.0 60:19.0 61:24.0 62:17.0 
-1.4654938150426196E-4 0:827.0 1:671.0 2:45.0 3:104.0 4:42.0 5:43.0 6:31.0 7:48.0 8:51.0 9:35.0 10:61.0 11:49.0 12:28.0 13:39.0 14:44.0 15:20.0 16:33.0 17:15.0 18:24.0 19:18.0 20:10.0 21:33.0 22:26.0 23:24.0 24:38.0 25:11.0 26:9.0 27:14.0 28:25.0 29:12.0 30:8.0 31:24.0 32:22.0 33:24.0 34:28.0 35:28.0 36:15.0 37:5.0 38:9.0 39:11.0 40:8.0 41:11.0 42:15.0 43:4.0 44:11.0 45:20.0 46:15.0 47:13.0 48:13.0 49:4.0 50:10.0 51:12.0 52:13.0 53:24.0 54:22.0 55:14.0 56:25.0 57:9.0 58:22.0 59:32.0 60:23.0 61:12.0 62:10.0 
-8.937820929273085E-4 0:426.0 1:241.0 2:112.0 3:63.0 4:52.0 5:34.0 6:47.0 7:51.0 8:68.0 9:77.0 10:72.0 11:47.0 12:12.0 13:21.0 14:35.0 15:43.0 16:40.0 17:35.0 18:31.0 19:27.0 20:18.0 21:10.0 22:8.0 23:13.0 24:14.0 25:14.0 26:22.0 27:19.0 28:9.0 29:22.0 30:21.0 31:9.0 32:5.0 33:8.0 34:15.0 35:14.0 36:7.0 37:12.0 38:3.0 39:11.0 40:13.0 41:10.0 42:7.0 43:3.0 44:6.0 45:4.0 46:7.0 47:5.0 48:3.0 49:4.0 50:6.0 51:7.0 52:6.0 53:6.0 54:10.0 55:9.0 56:4.0 57:2.0 58:4.0 59:6.0 60:5.0 61:1.0 62:2.0 
-0.01228162744192449 0:609.0 1:248.0 2:116.0 3:45.0 4:17.0 5:24.0 6:11.0 7:8.0 8:16.0 9:16.0 10:13.0 11:8.0 12:7.0 13:6.0 14:4.0 15:5.0 16:7.0 17:6.0 18:3.0 19:5.0 20:7.0 21:5.0 22:4.0 23:2.0 24:6.0 25:6.0 26:4.0 27:4.0 28:3.0 29:4.0 30:5.0 31:2.0 32:3.0 33:3.0 34:2.0 35:1.0 36:2.0 37:4.0 38:3.0 39:2.0 40:2.0 41:4.0 42:1.0 43:1.0 44:1.0 45:4.0 46:4.0 47:3.0 48:2.0 49:2.0 50:2.0 51:3.0 52:1.0 53:4.0 54:5.0 55:3.0 56:1.0 57:3.0 58:3.0 59:1.0 60:3.0 61:1.0 62:0.0 
-0.0011390866825062235 0:203.0 1:246.0 2:193.0 3:97.0 4:107.0 5:47.0 6:20.0 7:43.0 8:34.0 9:48.0 10:71.0 11:57.0 12:50.0 13:56.0 14:44.0 15:7.0 16:54.0 17:74.0 18:42.0 19:21.0 20:62.0 21:70.0 22:51.0 23:26.0 24:44.0 25:52.0 26:30.0 27:10.0 28:35.0 29:47.0 30:31.0 31:16.0 32:28.0 33:24.0 34:25.0 35:22.0 36:10.0 37:8.0 38:9.0 39:6.0 40:5.0 41:9.0 42:9.0 43:7.0 44:6.0 45:8.0 46:3.0 47:7.0 48:8.0 49:8.0 50:4.0 51:4.0 52:5.0 53:7.0 54:6.0 55:5.0 56:4.0 57:3.0 58:3.0 59:6.0 60:9.0 61:8.0 62:10.0 
